digraph Tree {
node [shape=box, style="filled, rounded", color="black", fontname="helvetica"] ;
edge [fontname="helvetica"] ;
0 [label="Allergy <= 1.5\ngini = 0.225\nsamples = 278\nvalue = [36, 242]\nclass = YES", fillcolor="#56ace9"] ;
1 [label="Swallowing Difficulty <= 1.5\ngini = 0.371\nsamples = 126\nvalue = [31, 95]\nclass = YES", fillcolor="#7abded"] ;
0 -> 1 [labeldistance=2.5, labelangle=45, headlabel="True"] ;
2 [label="Fatigue <= 1.5\ngini = 0.487\nsamples = 62\nvalue = [26, 36]\nclass = YES", fillcolor="#c8e4f8"] ;
1 -> 2 ;
3 [label="Age <= 56.5\ngini = 0.455\nsamples = 20\nvalue = [13, 7]\nclass = NO", fillcolor="#f3c5a4"] ;
2 -> 3 ;
4 [label="Age <= 48.0\ngini = 0.375\nsamples = 4\nvalue = [1, 3]\nclass = YES", fillcolor="#7bbeee"] ;
3 -> 4 ;
5 [label="gini = 0.0\nsamples = 1\nvalue = [1, 0]\nclass = NO", fillcolor="#e58139"] ;
4 -> 5 ;
6 [label="gini = 0.0\nsamples = 3\nvalue = [0, 3]\nclass = YES", fillcolor="#399de5"] ;
4 -> 6 ;
7 [label="Chronic Disease <= 1.5\ngini = 0.375\nsamples = 16\nvalue = [12, 4]\nclass = NO", fillcolor="#eeab7b"] ;
3 -> 7 ;
8 [label="Alcohol Consuming <= 1.5\ngini = 0.198\nsamples = 9\nvalue = [8, 1]\nclass = NO", fillcolor="#e89152"] ;
7 -> 8 ;
9 [label="gini = 0.0\nsamples = 8\nvalue = [8, 0]\nclass = NO", fillcolor="#e58139"] ;
8 -> 9 ;
10 [label="gini = 0.0\nsamples = 1\nvalue = [0, 1]\nclass = YES", fillcolor="#399de5"] ;
8 -> 10 ;
11 [label="Alcohol Consuming <= 1.5\ngini = 0.49\nsamples = 7\nvalue = [4, 3]\nclass = NO", fillcolor="#f8e0ce"] ;
7 -> 11 ;
12 [label="Smoking <= 1.5\ngini = 0.375\nsamples = 4\nvalue = [1, 3]\nclass = YES", fillcolor="#7bbeee"] ;
11 -> 12 ;
13 [label="gini = 0.0\nsamples = 2\nvalue = [0, 2]\nclass = YES", fillcolor="#399de5"] ;
12 -> 13 ;
14 [label="Age <= 64.5\ngini = 0.5\nsamples = 2\nvalue = [1, 1]\nclass = NO", fillcolor="#ffffff"] ;
12 -> 14 ;
15 [label="gini = 0.0\nsamples = 1\nvalue = [1, 0]\nclass = NO", fillcolor="#e58139"] ;
14 -> 15 ;
16 [label="gini = 0.0\nsamples = 1\nvalue = [0, 1]\nclass = YES", fillcolor="#399de5"] ;
14 -> 16 ;
17 [label="gini = 0.0\nsamples = 3\nvalue = [3, 0]\nclass = NO", fillcolor="#e58139"] ;
11 -> 17 ;
18 [label="Coughing <= 1.5\ngini = 0.427\nsamples = 42\nvalue = [13, 29]\nclass = YES", fillcolor="#92c9f1"] ;
2 -> 18 ;
19 [label="Yellow Fingers <= 1.5\ngini = 0.5\nsamples = 20\nvalue = [10, 10]\nclass = NO", fillcolor="#ffffff"] ;
18 -> 19 ;
20 [label="Age <= 60.5\ngini = 0.444\nsamples = 15\nvalue = [10, 5]\nclass = NO", fillcolor="#f2c09c"] ;
19 -> 20 ;
21 [label="Chronic Disease <= 1.5\ngini = 0.49\nsamples = 7\nvalue = [3, 4]\nclass = YES", fillcolor="#cee6f8"] ;
20 -> 21 ;
22 [label="Smoking <= 1.5\ngini = 0.375\nsamples = 4\nvalue = [3, 1]\nclass = NO", fillcolor="#eeab7b"] ;
21 -> 22 ;
23 [label="gini = 0.0\nsamples = 2\nvalue = [2, 0]\nclass = NO", fillcolor="#e58139"] ;
22 -> 23 ;
24 [label="Anxiety <= 1.5\ngini = 0.5\nsamples = 2\nvalue = [1, 1]\nclass = NO", fillcolor="#ffffff"] ;
22 -> 24 ;
25 [label="gini = 0.0\nsamples = 1\nvalue = [0, 1]\nclass = YES", fillcolor="#399de5"] ;
24 -> 25 ;
26 [label="gini = 0.0\nsamples = 1\nvalue = [1, 0]\nclass = NO", fillcolor="#e58139"] ;
24 -> 26 ;
27 [label="gini = 0.0\nsamples = 3\nvalue = [0, 3]\nclass = YES", fillcolor="#399de5"] ;
21 -> 27 ;
28 [label="Shortness of Breath <= 1.5\ngini = 0.219\nsamples = 8\nvalue = [7, 1]\nclass = NO", fillcolor="#e99355"] ;
20 -> 28 ;
29 [label="Anxiety <= 1.5\ngini = 0.5\nsamples = 2\nvalue = [1, 1]\nclass = NO", fillcolor="#ffffff"] ;
28 -> 29 ;
30 [label="gini = 0.0\nsamples = 1\nvalue = [0, 1]\nclass = YES", fillcolor="#399de5"] ;
29 -> 30 ;
31 [label="gini = 0.0\nsamples = 1\nvalue = [1, 0]\nclass = NO", fillcolor="#e58139"] ;
29 -> 31 ;
32 [label="gini = 0.0\nsamples = 6\nvalue = [6, 0]\nclass = NO", fillcolor="#e58139"] ;
28 -> 32 ;
33 [label="gini = 0.0\nsamples = 5\nvalue = [0, 5]\nclass = YES", fillcolor="#399de5"] ;
19 -> 33 ;
34 [label="Smoking <= 1.5\ngini = 0.236\nsamples = 22\nvalue = [3, 19]\nclass = YES", fillcolor="#58ace9"] ;
18 -> 34 ;
35 [label="Age <= 60.0\ngini = 0.375\nsamples = 12\nvalue = [3, 9]\nclass = YES", fillcolor="#7bbeee"] ;
34 -> 35 ;
36 [label="Wheezing <= 1.5\ngini = 0.444\nsamples = 3\nvalue = [2, 1]\nclass = NO", fillcolor="#f2c09c"] ;
35 -> 36 ;
37 [label="gini = 0.0\nsamples = 1\nvalue = [0, 1]\nclass = YES", fillcolor="#399de5"] ;
36 -> 37 ;
38 [label="gini = 0.0\nsamples = 2\nvalue = [2, 0]\nclass = NO", fillcolor="#e58139"] ;
36 -> 38 ;
39 [label="Age <= 68.5\ngini = 0.198\nsamples = 9\nvalue = [1, 8]\nclass = YES", fillcolor="#52a9e8"] ;
35 -> 39 ;
40 [label="gini = 0.0\nsamples = 8\nvalue = [0, 8]\nclass = YES", fillcolor="#399de5"] ;
39 -> 40 ;
41 [label="gini = 0.0\nsamples = 1\nvalue = [1, 0]\nclass = NO", fillcolor="#e58139"] ;
39 -> 41 ;
42 [label="gini = 0.0\nsamples = 10\nvalue = [0, 10]\nclass = YES", fillcolor="#399de5"] ;
34 -> 42 ;
43 [label="Peer Pressure <= 1.5\ngini = 0.144\nsamples = 64\nvalue = [5, 59]\nclass = YES", fillcolor="#4aa5e7"] ;
1 -> 43 ;
44 [label="Wheezing <= 1.5\ngini = 0.34\nsamples = 23\nvalue = [5, 18]\nclass = YES", fillcolor="#70b8ec"] ;
43 -> 44 ;
45 [label="Chronic Disease <= 1.5\ngini = 0.49\nsamples = 7\nvalue = [4, 3]\nclass = NO", fillcolor="#f8e0ce"] ;
44 -> 45 ;
46 [label="Alcohol Consuming <= 1.5\ngini = 0.32\nsamples = 5\nvalue = [4, 1]\nclass = NO", fillcolor="#eca06a"] ;
45 -> 46 ;
47 [label="gini = 0.0\nsamples = 3\nvalue = [3, 0]\nclass = NO", fillcolor="#e58139"] ;
46 -> 47 ;
48 [label="Age <= 61.5\ngini = 0.5\nsamples = 2\nvalue = [1, 1]\nclass = NO", fillcolor="#ffffff"] ;
46 -> 48 ;
49 [label="gini = 0.0\nsamples = 1\nvalue = [0, 1]\nclass = YES", fillcolor="#399de5"] ;
48 -> 49 ;
50 [label="gini = 0.0\nsamples = 1\nvalue = [1, 0]\nclass = NO", fillcolor="#e58139"] ;
48 -> 50 ;
51 [label="gini = 0.0\nsamples = 2\nvalue = [0, 2]\nclass = YES", fillcolor="#399de5"] ;
45 -> 51 ;
52 [label="Anxiety <= 1.5\ngini = 0.117\nsamples = 16\nvalue = [1, 15]\nclass = YES", fillcolor="#46a4e7"] ;
44 -> 52 ;
53 [label="gini = 0.0\nsamples = 1\nvalue = [1, 0]\nclass = NO", fillcolor="#e58139"] ;
52 -> 53 ;
54 [label="gini = 0.0\nsamples = 15\nvalue = [0, 15]\nclass = YES", fillcolor="#399de5"] ;
52 -> 54 ;
55 [label="gini = 0.0\nsamples = 41\nvalue = [0, 41]\nclass = YES", fillcolor="#399de5"] ;
43 -> 55 ;
56 [label="Age <= 29.5\ngini = 0.064\nsamples = 152\nvalue = [5, 147]\nclass = YES", fillcolor="#40a0e6"] ;
0 -> 56 [labeldistance=2.5, labelangle=-45, headlabel="False"] ;
57 [label="gini = 0.0\nsamples = 1\nvalue = [1, 0]\nclass = NO", fillcolor="#e58139"] ;
56 -> 57 ;
58 [label="Yellow Fingers <= 1.5\ngini = 0.052\nsamples = 151\nvalue = [4, 147]\nclass = YES", fillcolor="#3ea0e6"] ;
56 -> 58 ;
59 [label="Alcohol Consuming <= 1.5\ngini = 0.106\nsamples = 71\nvalue = [4, 67]\nclass = YES", fillcolor="#45a3e7"] ;
58 -> 59 ;
60 [label="Age <= 59.5\ngini = 0.375\nsamples = 8\nvalue = [2, 6]\nclass = YES", fillcolor="#7bbeee"] ;
59 -> 60 ;
61 [label="gini = 0.0\nsamples = 2\nvalue = [2, 0]\nclass = NO", fillcolor="#e58139"] ;
60 -> 61 ;
62 [label="gini = 0.0\nsamples = 6\nvalue = [0, 6]\nclass = YES", fillcolor="#399de5"] ;
60 -> 62 ;
63 [label="Fatigue <= 1.5\ngini = 0.061\nsamples = 63\nvalue = [2, 61]\nclass = YES", fillcolor="#3fa0e6"] ;
59 -> 63 ;
64 [label="Chronic Disease <= 1.5\ngini = 0.188\nsamples = 19\nvalue = [2, 17]\nclass = YES", fillcolor="#50a9e8"] ;
63 -> 64 ;
65 [label="Age <= 61.0\ngini = 0.408\nsamples = 7\nvalue = [2, 5]\nclass = YES", fillcolor="#88c4ef"] ;
64 -> 65 ;
66 [label="gini = 0.0\nsamples = 3\nvalue = [0, 3]\nclass = YES", fillcolor="#399de5"] ;
65 -> 66 ;
67 [label="Age <= 69.5\ngini = 0.5\nsamples = 4\nvalue = [2, 2]\nclass = NO", fillcolor="#ffffff"] ;
65 -> 67 ;
68 [label="Age <= 66.5\ngini = 0.444\nsamples = 3\nvalue = [2, 1]\nclass = NO", fillcolor="#f2c09c"] ;
67 -> 68 ;
69 [label="gini = 0.5\nsamples = 2\nvalue = [1, 1]\nclass = NO", fillcolor="#ffffff"] ;
68 -> 69 ;
70 [label="gini = 0.0\nsamples = 1\nvalue = [1, 0]\nclass = NO", fillcolor="#e58139"] ;
68 -> 70 ;
71 [label="gini = 0.0\nsamples = 1\nvalue = [0, 1]\nclass = YES", fillcolor="#399de5"] ;
67 -> 71 ;
72 [label="gini = 0.0\nsamples = 12\nvalue = [0, 12]\nclass = YES", fillcolor="#399de5"] ;
64 -> 72 ;
73 [label="gini = 0.0\nsamples = 44\nvalue = [0, 44]\nclass = YES", fillcolor="#399de5"] ;
63 -> 73 ;
74 [label="gini = 0.0\nsamples = 80\nvalue = [0, 80]\nclass = YES", fillcolor="#399de5"] ;
58 -> 74 ;
}